<?xml version="1.0"?>
<opencv_storage>
<cascade>
  <stageType>BOOST</stageType>
  <featureType>LBP</featureType>
  <height>13</height>
  <width>13</width>
  <stageParams>
    <boostType>GAB</boostType>
    <minHitRate>9.9900001287460327e-01</minHitRate>
    <maxFalseAlarm>5.0000000000000000e-01</maxFalseAlarm>
    <weightTrimRate>9.4999999999999996e-01</weightTrimRate>
    <maxDepth>1</maxDepth>
    <maxWeakCount>100</maxWeakCount></stageParams>
  <featureParams>
    <maxCatCount>256</maxCatCount>
    <featSize>1</featSize></featureParams>
  <stageNum>14</stageNum>
  <stages>
    <!-- stage 0 -->
    <_>
      <maxWeakCount>8</maxWeakCount>
      <stageThreshold>-2.5166437625885010e+00</stageThreshold>
      <weakClassifiers>
        <_>
          <internalNodes>
            0 -1 36 -2098178 -2097153 -3342340 -131073 -1 -1041 -131073
            -1</internalNodes>
          <leafValues>
            -8.9812141656875610e-01 2.3841260373592377e-01</leafValues></_>
        <_>
          <internalNodes>
            0 -1 5 -827412818 -8388873 53118685 -3145857 -346030098 -1
            -8273 -1</internalNodes>
          <leafValues>
            -7.6350188255310059e-01 3.0700886249542236e-01</leafValues></_>
        <_>
          <internalNodes>
            0 -1 8 -67114242 -69271554 -203620356 -2294024 -35651848
            -69405702 -1141506054 -9109506</internalNodes>
          <leafValues>
            -6.7446446418762207e-01 3.6483594775199890e-01</leafValues></_>
        <_>
          <internalNodes>
            0 -1 130 2147483647 2146762749 2147483647 -1098973188
            1576828924 -32769 -196612 -1157859372</internalNodes>
          <leafValues>
            -5.7312470674514771e-01 3.5723695158958435e-01</leafValues></_>
        <_>
          <internalNodes>
            0 -1 188 -2097387 1069546303 -268435552 -1342308483 -9994475
            2147483517 -94220 -454164611</internalNodes>
          <leafValues>
            -5.0287544727325439e-01 3.7248221039772034e-01</leafValues></_>
        <_>
          <internalNodes>
            0 -1 81 -2000769305 -1099108369 -16843147 -312672332
            534675036 2147418111 -8626476 -16973980</internalNodes>
          <leafValues>
            -5.1236885786056519e-01 3.3864516019821167e-01</leafValues></_>
        <_>
          <internalNodes>
            0 -1 160 2080358267 1043921916 -65543 804716532 2147253748
            -8650755 -168263728 -453182476</internalNodes>
          <leafValues>
            -5.6892830133438110e-01 2.7971595525741577e-01</leafValues></_>
        <_>
          <internalNodes>
            0 -1 133 1961231360 -1078067713 -1897078792 -1241530912
            897388718 -4728009 653725532 871853355</internalNodes>
          <leafValues>
            -6.3600569963455200e-01 2.5273928046226501e-01</leafValues></_></weakClassifiers></_>
    <!-- stage 1 -->
    <_>
      <maxWeakCount>9</maxWeakCount>
      <stageThreshold>-2.8941037654876709e+00</stageThreshold>
      <weakClassifiers>
        <_>
          <internalNodes>
            0 -1 41 -2097154 -513 1526779612 -2232321 -1025 -6296929
            -10616833 -2097153</internalNodes>
          <leafValues>
            -8.9727157354354858e-01 1.1195240914821625e-01</leafValues></_>
        <_>
          <internalNodes>
            0 -1 34 -614467968 -1197 318903569 -131077 -84213878
            -7361577 2145124347 -4097</internalNodes>
          <leafValues>
            -7.2910869121551514e-01 2.9968929290771484e-01</leafValues></_>
        <_>
          <internalNodes>
            0 -1 63 -174728742 -4259852 -37947428 -540686436 -16850948
            -73600352 -82252802 1426194382</internalNodes>
          <leafValues>
            -5.9689235687255859e-01 3.0907580256462097e-01</leafValues></_>
        <_>
          <internalNodes>
            0 -1 157 -767 -1086981164 -7932744 -1077552416 -23461896
            -25560604 -1074336036 925367378</internalNodes>
          <leafValues>
            -4.8335209488868713e-01 3.6927267909049988e-01</leafValues></_>
        <_>
          <internalNodes>
            0 -1 13 -85021986 -20004722 1738985404 1168460558 1576779662
            -50590788 1862134766 1393548543</internalNodes>
          <leafValues>
            -4.6325460076332092e-01 3.4800726175308228e-01</leafValues></_>
        <_>
          <internalNodes>
            0 -1 183 -1839857 -8913030 2130374253 -17465421 -56972788
            2146920351 -18488600 -367299046</internalNodes>
          <leafValues>
            -2.8631040453910828e-01 4.6288973093032837e-01</leafValues></_>
        <_>
          <internalNodes>
            0 -1 31 2013191039 -68747273 -80548168 -67977440 -641028
            2117369717 -8947882 -143429817</internalNodes>
          <leafValues>
            -3.6044517159461975e-01 3.9121851325035095e-01</leafValues></_>
        <_>
          <internalNodes>
            0 -1 94 2144890359 1069388264 -573778340 2135227378
            1535959036 470593084 -1179453192 1350008826</internalNodes>
          <leafValues>
            -4.3269720673561096e-01 3.2078009843826294e-01</leafValues></_>
        <_>
          <internalNodes>
            0 -1 19 -1439699222 -554252834 -356982056 2109070538
            -68224418 1600002302 -21169416 92266203</internalNodes>
          <leafValues>
            -4.2704677581787109e-01 3.0352866649627686e-01</leafValues></_></weakClassifiers></_>
    <!-- stage 2 -->
    <_>
      <maxWeakCount>14</maxWeakCount>
      <stageThreshold>-2.9498407840728760e+00</stageThreshold>
      <weakClassifiers>
        <_>
          <internalNodes>
            0 -1 97 -136325359 -2230817 -2654721 -33 -1025 -5125
            -4195393 -1</internalNodes>
          <leafValues>
            -8.5891127586364746e-01 1.1141397058963776e-01</leafValues></_>
        <_>
          <internalNodes>
            0 -1 98 -2099240 -1033 1030094812 -539107329 -12058724 -5131
            1460002587 2139095039</internalNodes>
          <leafValues>
            -6.9999539852142334e-01 2.1489270031452179e-01</leafValues></_>
        <_>
          <internalNodes>
            0 -1 12 -202461442 -4137220 2012542430 -574567176 -539173889
            -117640334 1065156606 1575998943</internalNodes>
          <leafValues>
            -5.2201414108276367e-01 3.2023596763610840e-01</leafValues></_>
        <_>
          <internalNodes>
            0 -1 14 -272634133 -494735646 -1879105758 -76613664
            -571486994 -1360117770 -134289449 -402794514</internalNodes>
          <leafValues>
            -3.6207067966461182e-01 4.0641862154006958e-01</leafValues></_>
        <_>
          <internalNodes>
            0 -1 74 -2138147 -747080211 -537101060 -35061772 1568439292
            1999665652 -1901058 393246322</internalNodes>
          <leafValues>
            -4.6893671154975891e-01 2.9741531610488892e-01</leafValues></_>
        <_>
          <internalNodes>
            0 -1 78 -1075891542 -544410658 -1143677444 -268641448
            -406978832 -548030052 1577385966 1431699198</internalNodes>
          <leafValues>
            -4.9738490581512451e-01 2.6202455163002014e-01</leafValues></_>
        <_>
          <internalNodes>
            0 -1 61 784041194 2128411644 -302187524 -172627476
            2104950268 -564337922 -1087086644 1440061946</internalNodes>
          <leafValues>
            -4.6750381588935852e-01 2.6905918121337891e-01</leafValues></_>
        <_>
          <internalNodes>
            0 -1 155 -525295 -1148321796 -1078002016 -4587616 -176171044
            2138570740 -214171906 637534207</internalNodes>
          <leafValues>
            -3.0496925115585327e-01 3.9112490415573120e-01</leafValues></_>
        <_>
          <internalNodes>
            0 -1 104 2145771511 -1426262529 -157361683 -1367572484
            2147243349 -4457473 -17014916 -151224460</internalNodes>
          <leafValues>
            -5.2327769994735718e-01 2.4314638972282410e-01</leafValues></_>
        <_>
          <internalNodes>
            0 -1 107 -540221441 892916128 -264841684 -197196 -1707324932
            487911780 -33812492 1975484414</internalNodes>
          <leafValues>
            -4.2099764943122864e-01 2.8564900159835815e-01</leafValues></_>
        <_>
          <internalNodes>
            0 -1 186 -16793813 -277651506 -1363165598 -68472923
            -50350272 -1098956987 -688521492 -137364022</internalNodes>
          <leafValues>
            -2.9324376583099365e-01 4.1047358512878418e-01</leafValues></_>
        <_>
          <internalNodes>
            0 -1 33 44740288 196231144 -109085075 636823350 1023008759
            -22029313 -419554642 100104102</internalNodes>
          <leafValues>
            -6.1202889680862427e-01 1.9121295213699341e-01</leafValues></_>
        <_>
          <internalNodes>
            0 -1 142 -9568303 -1074528264 -150995820 -1883308812
            -536913955 1820164092 -1114178 935327734</internalNodes>
          <leafValues>
            -3.0989053845405579e-01 3.8130193948745728e-01</leafValues></_>
        <_>
          <internalNodes>
            0 -1 30 -537692934 -546539524 -413139714 -65558 494697321
            461197627 2132819573 -13536400</internalNodes>
          <leafValues>
            -4.0676328539848328e-01 2.9516249895095825e-01</leafValues></_></weakClassifiers></_>
    <!-- stage 3 -->
    <_>
      <maxWeakCount>15</maxWeakCount>
      <stageThreshold>-2.3775846958160400e+00</stageThreshold>
      <weakClassifiers>
        <_>
          <internalNodes>
            0 -1 3 -525406977 -1057 -539240961 -9217 -621019141 -1537
            -268697601 -1</internalNodes>
          <leafValues>
            -8.5453259944915771e-01 -6.1766523867845535e-03</leafValues></_>
        <_>
          <internalNodes>
            0 -1 182 -536886016 -525353 -213913545 -136316417
            -1078198342 -5253 858963951 -33</internalNodes>
          <leafValues>
            -6.1623167991638184e-01 2.4539366364479065e-01</leafValues></_>
        <_>
          <internalNodes>
            0 -1 193 -1140850701 -1090978561 2147418100 -1929463623
            -1342244897 -1367556609 -1107296513 -1996554497</internalNodes>
          <leafValues>
            -3.8798522949218750e-01 3.9140433073043823e-01</leafValues></_>
        <_>
          <internalNodes>
            0 -1 22 -285544705 -1610711308 -25493828 -167870496
            -587702276 1593606134 -37945638 1417105114</internalNodes>
          <leafValues>
            -4.3971854448318481e-01 2.9606360197067261e-01</leafValues></_>
        <_>
          <internalNodes>
            0 -1 121 -1126703177 1602093048 -475176 -1077936420
            2094391260 1599987708 -1343423494 901741559</internalNodes>
          <leafValues>
            -3.1348258256912231e-01 3.9135578274726868e-01</leafValues></_>
        <_>
          <internalNodes>
            0 -1 156 1608340605 1073282040 -4816902 -1347486212
            2013032948 -17 -639116 -16846860</internalNodes>
          <leafValues>
            -4.3962341547012329e-01 2.8593969345092773e-01</leafValues></_>
        <_>
          <internalNodes>
            0 -1 20 -354684961 -28508346 2130628202 -214044 1677576955
            -42467457 -244097 -134742025</internalNodes>
          <leafValues>
            -2.5620707869529724e-01 4.4417342543601990e-01</leafValues></_>
        <_>
          <internalNodes>
            0 -1 110 -67313667 785676796 -26843444 -1090650404 -52638844
            901020916 -73732 1070989278</internalNodes>
          <leafValues>
            -3.7968295812606812e-01 3.0188694596290588e-01</leafValues></_>
        <_>
          <internalNodes>
            0 -1 2 -1059026718 -1176491390 -1627711891 -168874029
            1207940331 -50336773 802088959 581935067</internalNodes>
          <leafValues>
            -3.9679855108261108e-01 2.8020882606506348e-01</leafValues></_>
        <_>
          <internalNodes>
            0 -1 164 2143158015 -1531658244 -80487425 -1342277124
            494725109 1039925209 16457725 -1392575236</internalNodes>
          <leafValues>
            -4.1501593589782715e-01 2.5945472717285156e-01</leafValues></_>
        <_>
          <internalNodes>
            0 -1 87 2121262815 238867284 -30372240 1862204404 1285835644
            1977396206 2147147588 888602612</internalNodes>
          <leafValues>
            -6.8270099163055420e-01 1.5064127743244171e-01</leafValues></_>
        <_>
          <internalNodes>
            0 -1 52 1338146767 536139772 -275465294 -33655876 -121078792
            -9384204 -1342407314 1974959994</internalNodes>
          <leafValues>
            -3.7223041057586670e-01 2.8436672687530518e-01</leafValues></_>
        <_>
          <internalNodes>
            0 -1 77 1977549503 534048422 -606277652 936758100 -646171332
            2145051646 -117646450 654278171</internalNodes>
          <leafValues>
            -3.2558855414390564e-01 3.4439602494239807e-01</leafValues></_>
        <_>
          <internalNodes>
            0 -1 161 -1114251 1064763197 -50856152 770506676 -2105620
            796721141 -50855940 -1208494145</internalNodes>
          <leafValues>
            -2.9203730821609497e-01 3.6526441574096680e-01</leafValues></_>
        <_>
          <internalNodes>
            0 -1 134 2145322976 -1142364732 -1214646096 -1380188604
            -75568964 -10930498 772033032 1040154599</internalNodes>
          <leafValues>
            -4.2972424626350403e-01 2.2965799272060394e-01</leafValues></_></weakClassifiers></_>
    <!-- stage 4 -->
    <_>
      <maxWeakCount>18</maxWeakCount>
      <stageThreshold>-2.4531421661376953e+00</stageThreshold>
      <weakClassifiers>
        <_>
          <internalNodes>
            0 -1 148 -169 -1543 -44040193 -33 -17040481 -1 -1 -1</internalNodes>
          <leafValues>
            -8.2461267709732056e-01 -9.5087159425020218e-03</leafValues></_>
        <_>
          <internalNodes>
            0 -1 4 -67163410 -2109955 989719391 -3414089 -268963841 -1
            -16801793 -4206593</internalNodes>
          <leafValues>
            -5.9045308828353882e-01 2.0211341977119446e-01</leafValues></_>
        <_>
          <internalNodes>
            0 -1 54 -537167905 -4358209 -20545 -8720514 1005992948
            -5091275 -17793168 -13467785</internalNodes>
          <leafValues>
            -4.5401930809020996e-01 3.2575076818466187e-01</leafValues></_>
        <_>
          <internalNodes>
            0 -1 189 -8389843 -4325412 -1178732872 -1086325000 -8454408
            -549658700 -65560 -1733099522</internalNodes>
          <leafValues>
            -3.4353512525558472e-01 3.4696608781814575e-01</leafValues></_>
        <_>
          <internalNodes>
            0 -1 95 -27394049 -75727107 -86017 -142983169 -38791708
            -897921 -1087180808 -5083280</internalNodes>
          <leafValues>
            -3.7558877468109131e-01 3.0862405896186829e-01</leafValues></_>
        <_>
          <internalNodes>
            0 -1 64 1067409351 -576782340 -17892100 -4260 -546513156
            1604124660 -18022402 1962893310</internalNodes>
          <leafValues>
            -3.1390076875686646e-01 3.6519917845726013e-01</leafValues></_>
        <_>
          <internalNodes>
            0 -1 153 -675293803 2138636205 -1342251104 -1074135107
            -581042692 -1623786252 1064794974 2067527551</internalNodes>
          <leafValues>
            -2.8668966889381409e-01 3.9039137959480286e-01</leafValues></_>
        <_>
          <internalNodes>
            0 -1 103 2097089463 -1103560808 2100755288 -1638500
            1324113892 2069233004 -51585186 882360166</internalNodes>
          <leafValues>
            -4.0131708979606628e-01 2.6686638593673706e-01</leafValues></_>
        <_>
          <internalNodes>
            0 -1 102 1287630391 804847614 -557384887 -537069636
            2010995325 1056309166 -18154116 -16973836</internalNodes>
          <leafValues>
            -4.3516960740089417e-01 2.3855254054069519e-01</leafValues></_>
        <_>
          <internalNodes>
            0 -1 45 -1430479105 519758460 -18051380 -2051061508
            1291635198 1598878653 -2204033 1442306047</internalNodes>
          <leafValues>
            -3.6696055531501770e-01 3.0764412879943848e-01</leafValues></_>
        <_>
          <internalNodes>
            0 -1 65 -1296143685 -1929976860 -1090597126 -461570052
            1399085820 -9379841 -229552 -1498087564</internalNodes>
          <leafValues>
            -5.7784312963485718e-01 1.7106448113918304e-01</leafValues></_>
        <_>
          <internalNodes>
            0 -1 18 2096033406 -136380684 -153157898 134205174
            -606300228 1593724799 2045300223 1500512254</internalNodes>
          <leafValues>
            -3.1457218527793884e-01 3.1216326355934143e-01</leafValues></_>
        <_>
          <internalNodes>
            0 -1 80 1051183791 -694223892 2146498206 -977797340
            1506175480 1551686604 -65602 805264382</internalNodes>
          <leafValues>
            -3.2636642456054688e-01 3.2334628701210022e-01</leafValues></_>
        <_>
          <internalNodes>
            0 -1 109 -1610645505 -1089929236 -1344372826 -290783240
            2104577020 1585250228 -1644232868 889190359</internalNodes>
          <leafValues>
            -4.1240608692169189e-01 2.4769659340381622e-01</leafValues></_>
        <_>
          <internalNodes>
            0 -1 180 1061154141 682291452 -67122243 -2064066316
            -1611047011 -1667733111 -1627849539 -1930585603</internalNodes>
          <leafValues>
            -4.0819057822227478e-01 2.3341406881809235e-01</leafValues></_>
        <_>
          <internalNodes>
            0 -1 27 -822248193 1055153653 -32055586 -6103564 1521633006
            1328962295 -4565136 1347812210</internalNodes>
          <leafValues>
            -4.4690665602684021e-01 2.0951592922210693e-01</leafValues></_>
        <_>
          <internalNodes>
            0 -1 149 -16959744 -20972548 -1691195420 958955448
            -671132416 -2319371 662066730 1840082719</internalNodes>
          <leafValues>
            -5.6249898672103882e-01 1.6578206419944763e-01</leafValues></_>
        <_>
          <internalNodes>
            0 -1 119 1863849507 1535767548 -269018352 -1346633796
            -615482476 2136275933 -99782 938966518</internalNodes>
          <leafValues>
            -3.6535117030143738e-01 2.5290378928184509e-01</leafValues></_></weakClassifiers></_>
    <!-- stage 5 -->
    <_>
      <maxWeakCount>11</maxWeakCount>
      <stageThreshold>-2.6218342781066895e+00</stageThreshold>
      <weakClassifiers>
        <_>
          <internalNodes>
            0 -1 166 -60329 -1 -1025 -1 -257 -1048641 -262145 -1</internalNodes>
          <leafValues>
            -8.6368817090988159e-01 -7.6144836843013763e-02</leafValues></_>
        <_>
          <internalNodes>
            0 -1 17 -16842753 -65538 -1375797250 -2686980 -65537
            -33882129 -66049 -9109516</internalNodes>
          <leafValues>
            -7.1524566411972046e-01 1.7039468884468079e-01</leafValues></_>
        <_>
          <internalNodes>
            0 -1 169 -8389633 -1883439368 -33 -65556 -268472460 -5127
            -163852 -50792460</internalNodes>
          <leafValues>
            -5.7082033157348633e-01 2.9415377974510193e-01</leafValues></_>
        <_>
          <internalNodes>
            0 -1 73 737951101 -302088321 -65 -26148865 -67887820
            -9143435 2138340144 -76513488</internalNodes>
          <leafValues>
            -6.2117445468902588e-01 2.4534723162651062e-01</leafValues></_>
        <_>
          <internalNodes>
            0 -1 86 1593744127 787226623 -18874370 1325170684 -9143426
            -1208027145 -17006724 -16842768</internalNodes>
          <leafValues>
            -4.8662889003753662e-01 3.1131640076637268e-01</leafValues></_>
        <_>
          <internalNodes>
            0 -1 14 -318771457 -523325726 -805372058 -536873760
            -173019649 -286285834 -176230641 -137371652</internalNodes>
          <leafValues>
            -3.0391937494277954e-01 4.3764725327491760e-01</leafValues></_>
        <_>
          <internalNodes>
            0 -1 117 -1611129347 -1081171988 -268669139 -271798356
            2145132508 -197127 -606310564 -286196876</internalNodes>
          <leafValues>
            -4.5724859833717346e-01 2.8721925616264343e-01</leafValues></_>
        <_>
          <internalNodes>
            0 -1 68 1069501183 472449012 2147245822 -294948 1560071676
            1609890740 1054801660 2130010110</internalNodes>
          <leafValues>
            -3.7316173315048218e-01 3.0815455317497253e-01</leafValues></_>
        <_>
          <internalNodes>
            0 -1 191 -269238422 -1465319496 -268571040 -470913368
            -77603007 1342046197 -352472844 -521406740</internalNodes>
          <leafValues>
            -4.4860675930976868e-01 2.6446893811225891e-01</leafValues></_>
        <_>
          <internalNodes>
            0 -1 113 -1476327374 -276824095 -2097153 -1086469644
            -1157694469 -2448071 -1630504002 -1393476107</internalNodes>
          <leafValues>
            -4.1025459766387939e-01 2.6591974496841431e-01</leafValues></_>
        <_>
          <internalNodes>
            0 -1 25 -1392541985 -823199113 -423695182 -17139726 -832436
            2054574924 -1208617204 -203948464</internalNodes>
          <leafValues>
            -3.9304322004318237e-01 2.8406581282615662e-01</leafValues></_></weakClassifiers></_>
    <!-- stage 6 -->
    <_>
      <maxWeakCount>11</maxWeakCount>
      <stageThreshold>-2.3851459026336670e+00</stageThreshold>
      <weakClassifiers>
        <_>
          <internalNodes>
            0 -1 183 -225 -2108417 -150995457 -1025 -2379264 -67124237
            -83887361 -1</internalNodes>
          <leafValues>
            -8.6424541473388672e-01 -6.5842516720294952e-02</leafValues></_>
        <_>
          <internalNodes>
            0 -1 75 -1467827277 -604034638 -3 -35700739 -1145585665
            -1075326227 -1078460417 -9217</internalNodes>
          <leafValues>
            -6.1007618904113770e-01 4.0320825576782227e-01</leafValues></_>
        <_>
          <internalNodes>
            0 -1 187 -264688 -71337991 -43061340 -1051675 -276827644
            936693241 -17891612 -219159826</internalNodes>
          <leafValues>
            -4.4974869489669800e-01 3.6160323023796082e-01</leafValues></_>
        <_>
          <internalNodes>
            0 -1 144 1073610751 904199156 -422316033 -2163716 2042461437
            -1346374731 -2189828 -1090586884</internalNodes>
          <leafValues>
            -4.2731979489326477e-01 3.5725319385528564e-01</leafValues></_>
        <_>
          <internalNodes>
            0 -1 141 2136996789 -1355612208 -56623113 -1079181328
            -1214092 -1073774403 -562268188 -17007628</internalNodes>
          <leafValues>
            -4.9193572998046875e-01 2.7910780906677246e-01</leafValues></_>
        <_>
          <internalNodes>
            0 -1 16 -1360269573 -525973814 -1091164192 -153291536
            -1712631073 1706587389 322884239 -255859760</internalNodes>
          <leafValues>
            -3.9761343598365784e-01 3.5483476519584656e-01</leafValues></_>
        <_>
          <internalNodes>
            0 -1 92 -537051137 620647903 -10560513 1928917925
            -1715728116 1941644987 -67962472 -17106052</internalNodes>
          <leafValues>
            -4.0010514855384827e-01 3.1211432814598083e-01</leafValues></_>
        <_>
          <internalNodes>
            0 -1 154 -268472411 717943804 1895755250 -1141049352
            -67207408 2079023593 -728452 -16975900</internalNodes>
          <leafValues>
            -4.3391653895378113e-01 2.7484837174415588e-01</leafValues></_>
        <_>
          <internalNodes>
            0 -1 66 756957675 -1161937252 -866360324 -5212596 -100894210
            2077519856 2096652282 1039630066</internalNodes>
          <leafValues>
            -4.2360016703605652e-01 2.6928886771202087e-01</leafValues></_>
        <_>
          <internalNodes>
            0 -1 38 -1464949074 76214174 -4842019 2146914270 -107850
            1073741051 1006566125 804732927</internalNodes>
          <leafValues>
            -5.1235425472259521e-01 2.1774487197399139e-01</leafValues></_>
        <_>
          <internalNodes>
            0 -1 37 -827617301 -93546302 -574670857 -571304330
            -1276133394 -1096321545 -348323930 -67329802</internalNodes>
          <leafValues>
            -2.5969767570495605e-01 4.3173786997795105e-01</leafValues></_></weakClassifiers></_>
    <!-- stage 7 -->
    <_>
      <maxWeakCount>16</maxWeakCount>
      <stageThreshold>-2.5607368946075439e+00</stageThreshold>
      <weakClassifiers>
        <_>
          <internalNodes>
            0 -1 147 -589707 -35656705 -35913729 -33563649 -22483265
            -68232453 -1075855361 -1029</internalNodes>
          <leafValues>
            -8.7234973907470703e-01 -2.0757894217967987e-01</leafValues></_>
        <_>
          <internalNodes>
            0 -1 55 -1968471877 -69228398 -547357703 -1807 -1884291077
            -555818823 -1075057669 -2101505</internalNodes>
          <leafValues>
            -5.6543958187103271e-01 3.3303877711296082e-01</leafValues></_>
        <_>
          <internalNodes>
            0 -1 186 -1311949 -794677 -1363165450 -68177987 -167774720
            -16826556 -92865794 -201326594</internalNodes>
          <leafValues>
            -3.6528897285461426e-01 4.4869261980056763e-01</leafValues></_>
        <_>
          <internalNodes>
            0 -1 130 -536883457 -2829316 2011035647 -16868612 -34840580
            -1083944834 -1141195780 -1140967432</internalNodes>
          <leafValues>
            -3.9171811938285828e-01 3.6929422616958618e-01</leafValues></_>
        <_>
          <internalNodes>
            0 -1 122 -51904523 -1094912514 -1093733955 -6360596
            -805544004 2146367418 -1245220 -83951628</internalNodes>
          <leafValues>
            -3.7537014484405518e-01 3.3262532949447632e-01</leafValues></_>
        <_>
          <internalNodes>
            0 -1 67 -289489249 -1359029250 -61146370 -553976976
            -225551628 -1156577278 -67339268 -16844842</internalNodes>
          <leafValues>
            -3.5096421837806702e-01 3.3981338143348694e-01</leafValues></_>
        <_>
          <internalNodes>
            0 -1 106 2015870755 1069350876 -1074987504 -24 -562270224
            536215532 2013200318 2012217087</internalNodes>
          <leafValues>
            -2.7805662155151367e-01 3.8807776570320129e-01</leafValues></_>
        <_>
          <internalNodes>
            0 -1 29 2147432441 1861134295 2139010930 -553748614
            -68857744 -252698512 -95148428 -76384400</internalNodes>
          <leafValues>
            -4.6994778513908386e-01 2.3210857808589935e-01</leafValues></_>
        <_>
          <internalNodes>
            0 -1 173 -13119468 -727114 981467005 2146985844 -22220672
            -41944065 -1204768835 -231015558</internalNodes>
          <leafValues>
            -2.7478346228599548e-01 3.9049285650253296e-01</leafValues></_>
        <_>
          <internalNodes>
            0 -1 171 1057200115 -1360219912 -14948611 -1929451016
            1642085084 -1989613123 -121643523 -1895842308</internalNodes>
          <leafValues>
            -3.6959281563758850e-01 2.8169983625411987e-01</leafValues></_>
        <_>
          <internalNodes>
            0 -1 10 -355866885 -1897216882 2124312253 872399856
            -1191673925 -2131039750 -287605059 -788534379</internalNodes>
          <leafValues>
            -3.6592125892639160e-01 2.8821000456809998e-01</leafValues></_>
        <_>
          <internalNodes>
            0 -1 140 -3443425 -1086455820 -1510670340 -1073742092
            -153223816 1339949052 2130704382 2146435070</internalNodes>
          <leafValues>
            -2.7836245298385620e-01 3.8054898381233215e-01</leafValues></_>
        <_>
          <internalNodes>
            0 -1 120 1044317861 605352156 -1786230516 -268668500
            1658092368 2074837998 -1144198308 -1090717708</internalNodes>
          <leafValues>
            -5.3984898328781128e-01 1.9567258656024933e-01</leafValues></_>
        <_>
          <internalNodes>
            0 -1 51 -268501001 -1359056908 -590152110 -67588 -151233538
            1576422398 -17643812 1895563254</internalNodes>
          <leafValues>
            -3.9350882172584534e-01 2.3883914947509766e-01</leafValues></_>
        <_>
          <internalNodes>
            0 -1 136 -6355919 -1087309836 -222781520 -1346470916
            1867962576 2145189616 -71953766 2009071250</internalNodes>
          <leafValues>
            -3.7189468741416931e-01 2.5166985392570496e-01</leafValues></_>
        <_>
          <internalNodes>
            0 -1 192 1592786683 -1434918174 -674026768 -1996985452
            -541093219 -1191390736 -824460804 -925901572</internalNodes>
          <leafValues>
            -3.5046783089637756e-01 2.8877475857734680e-01</leafValues></_></weakClassifiers></_>
    <!-- stage 8 -->
    <_>
      <maxWeakCount>19</maxWeakCount>
      <stageThreshold>-2.5723507404327393e+00</stageThreshold>
      <weakClassifiers>
        <_>
          <internalNodes>
            0 -1 97 -136710383 -4196417 -78152321 -132097 -67240003
            -17921 -40109121 -67109953</internalNodes>
          <leafValues>
            -8.4831082820892334e-01 -3.5614365339279175e-01</leafValues></_>
        <_>
          <internalNodes>
            0 -1 30 -34113537 -303235 -2425089 -35333 -37978247 -9077897
            -1151714703 -9224329</internalNodes>
          <leafValues>
            -5.6182444095611572e-01 2.0908170938491821e-01</leafValues></_>
        <_>
          <internalNodes>
            0 -1 188 -2097391 1060894840 1739042464 -1149239380
            -607125616 1535900669 -17892364 -150994949</internalNodes>
          <leafValues>
            -3.6496776342391968e-01 3.0055001378059387e-01</leafValues></_>
        <_>
          <internalNodes>
            0 -1 32 -895295027 -1741650718 2113336823 -1118098955
            1106247163 -1025 -705175553 -823139107</internalNodes>
          <leafValues>
            -3.1064221262931824e-01 3.3491897583007813e-01</leafValues></_>
        <_>
          <internalNodes>
            0 -1 107 -538181633 2100854180 -21074388 -268698188
            -1099149844 494206324 -33652738 2100788991</internalNodes>
          <leafValues>
            -2.7310314774513245e-01 3.6806955933570862e-01</leafValues></_>
        <_>
          <internalNodes>
            0 -1 71 -788485 -1313441825 -27626497 997261179 -555462572
            1936990906 -202745232 -67698864</internalNodes>
          <leafValues>
            -3.5056927800178528e-01 2.9663997888565063e-01</leafValues></_>
        <_>
          <internalNodes>
            0 -1 9 -307248937 -526350166 1168110390 -8062288 -572523298
            -1165040721 -1460017421 -1041506096</internalNodes>
          <leafValues>
            -3.1378969550132751e-01 3.0128306150436401e-01</leafValues></_>
        <_>
          <internalNodes>
            0 -1 93 -25723905 -600506704 1878961896 -1073774600 -335876
            1383366648 2147024892 1006591487</internalNodes>
          <leafValues>
            -2.4029977619647980e-01 3.9010709524154663e-01</leafValues></_>
        <_>
          <internalNodes>
            0 -1 190 -1080033487 788774840 1637737056 -1899317556
            -572032256 847117300 -262404 -973807882</internalNodes>
          <leafValues>
            -3.8054630160331726e-01 2.3556786775588989e-01</leafValues></_>
        <_>
          <internalNodes>
            0 -1 123 -1612710225 1058144252 1059372336 1069546716
            -1093869574 1281228796 -135340034 1069514747</internalNodes>
          <leafValues>
            -2.3723946511745453e-01 3.8452166318893433e-01</leafValues></_>
        <_>
          <internalNodes>
            0 -1 40 1598758558 -286291970 1111753985 115697476
            -136316154 -623195683 458821418 2136603487</internalNodes>
          <leafValues>
            -4.0390253067016602e-01 2.1297569572925568e-01</leafValues></_>
        <_>
          <internalNodes>
            0 -1 157 -6308587 -1083910404 -44106320 -2106672 -58917912
            -78267468 -590114 1601698882</internalNodes>
          <leafValues>
            -3.0039054155349731e-01 2.8736311197280884e-01</leafValues></_>
        <_>
          <internalNodes>
            0 -1 176 -743440975 1069145968 -1512314144 -271656580
            -101779068 2138308211 -1210270996 -252182540</internalNodes>
          <leafValues>
            -3.0420401692390442e-01 2.8240454196929932e-01</leafValues></_>
        <_>
          <internalNodes>
            0 -1 47 -1094808833 957151978 -10040680 -1077946596
            1272728496 -1671900162 -101818370 1073733342</internalNodes>
          <leafValues>
            -2.7341005206108093e-01 2.9009509086608887e-01</leafValues></_>
        <_>
          <internalNodes>
            0 -1 158 2134769331 502919672 -203435274 -1246212 -269714441
            1996428173 -198276 -65804</internalNodes>
          <leafValues>
            -3.3479422330856323e-01 2.6099666953086853e-01</leafValues></_>
        <_>
          <internalNodes>
            0 -1 82 1975476903 2100615876 1080488124 -1342703644
            -606451468 -69557586 -307303522 1979153246</internalNodes>
          <leafValues>
            -3.0514559149742126e-01 2.9330918192863464e-01</leafValues></_>
        <_>
          <internalNodes>
            0 -1 112 1073706713 1046411676 -568404640 -1108430108
            2107825020 2086457652 -134873348 884472817</internalNodes>
          <leafValues>
            -4.0835189819335938e-01 1.9427128136157990e-01</leafValues></_>
        <_>
          <internalNodes>
            0 -1 135 2133923251 1002242032 -10486537 -278070548
            -77897932 -126996229 2129556604 -319881612</internalNodes>
          <leafValues>
            -3.5457259416580200e-01 2.1827732026576996e-01</leafValues></_>
        <_>
          <internalNodes>
            0 -1 44 951717540 1525836476 -19117988 1569540320 1523539848
            1555624952 -1362109080 2146392943</internalNodes>
          <leafValues>
            -3.6706620454788208e-01 2.1039992570877075e-01</leafValues></_></weakClassifiers></_>
    <!-- stage 9 -->
    <_>
      <maxWeakCount>23</maxWeakCount>
      <stageThreshold>-2.3662028312683105e+00</stageThreshold>
      <weakClassifiers>
        <_>
          <internalNodes>
            0 -1 181 -10977 -6145 -545260801 -769 -71582789 -1312065
            -4588545 -33</internalNodes>
          <leafValues>
            -8.1048345565795898e-01 -2.1418732404708862e-01</leafValues></_>
        <_>
          <internalNodes>
            0 -1 0 -868029750 -35667714 -932654625 1574653903 -74453761
            -2425873 -320877569 -540020993</internalNodes>
          <leafValues>
            -5.3629744052886963e-01 1.5048293769359589e-01</leafValues></_>
        <_>
          <internalNodes>
            0 -1 39 285709163 -304283714 -939724850 1609354956 -67121161
            -37838854 -167904261 -42139654</internalNodes>
          <leafValues>
            -4.4243767857551575e-01 2.3373326659202576e-01</leafValues></_>
        <_>
          <internalNodes>
            0 -1 114 1442173056 -100683777 905953150 -4591781 1962211310
            -69206289 901134334 901723766</internalNodes>
          <leafValues>
            -3.6101254820823669e-01 2.4566920101642609e-01</leafValues></_>
        <_>
          <internalNodes>
            0 -1 163 1069154171 799733492 -135278667 -1342769668
            2037414012 1810909817 -10331276 -1493281292</internalNodes>
          <leafValues>
            -4.6576106548309326e-01 2.1861390769481659e-01</leafValues></_>
        <_>
          <internalNodes>
            0 -1 139 -1078522447 1041624125 -892167464 -1078068236
            1400230632 2138421436 -201921798 1034387327</internalNodes>
          <leafValues>
            -2.9973658919334412e-01 2.8809499740600586e-01</leafValues></_>
        <_>
          <internalNodes>
            0 -1 131 1073184727 -1732444684 -598156036 -1107628292
            -42405404 359985276 2136274428 553614584</internalNodes>
          <leafValues>
            -4.3528524041175842e-01 1.9687648117542267e-01</leafValues></_>
        <_>
          <internalNodes>
            0 -1 91 2130672543 463313308 -759238828 -1881703500
            -651146387 1608281084 -285320488 2011125758</internalNodes>
          <leafValues>
            -3.0257105827331543e-01 2.9291427135467529e-01</leafValues></_>
        <_>
          <internalNodes>
            0 -1 19 -1440813408 -1634807330 -300135702 1869942732
            -68239714 527318526 -289603847 232783314</internalNodes>
          <leafValues>
            -4.0807098150253296e-01 1.9499696791172028e-01</leafValues></_>
        <_>
          <internalNodes>
            0 -1 104 1283248127 985440220 -17906723 -1367575556
            2147221717 -66629 2063387508 -220430412</internalNodes>
          <leafValues>
            -5.0577712059020996e-01 1.5283879637718201e-01</leafValues></_>
        <_>
          <internalNodes>
            0 -1 103 686000947 943256504 -1324956392 -1079647458
            1214618344 1527376040 -1156114 641187838</internalNodes>
          <leafValues>
            -3.2456386089324951e-01 2.4267195165157318e-01</leafValues></_>
        <_>
          <internalNodes>
            0 -1 58 -1565873792 -626203936 1940888255 -33718496
            269716471 -1614620533 -1167648652 1291612340</internalNodes>
          <leafValues>
            -4.0996611118316650e-01 1.8812212347984314e-01</leafValues></_>
        <_>
          <internalNodes>
            0 -1 172 -265152447 -33629197 -137888325 -32776326
            -1153785684 -1625427528 -164373525 -331802558</internalNodes>
          <leafValues>
            -2.7942958474159241e-01 2.6272776722908020e-01</leafValues></_>
        <_>
          <internalNodes>
            0 -1 193 -1176535311 530207976 -35709456 -2067875655
            -1419840523 -1468485384 1005256700 -1996693510</internalNodes>
          <leafValues>
            -3.4527841210365295e-01 2.1608072519302368e-01</leafValues></_>
        <_>
          <internalNodes>
            0 -1 159 -751 -1621297188 -1680411184 800717524 -67143740
            1796334460 1873665774 523763702</internalNodes>
          <leafValues>
            -2.6978194713592529e-01 2.8298270702362061e-01</leafValues></_>
        <_>
          <internalNodes>
            0 -1 72 2146956255 1282939384 -833687568 1274865648
            -539606276 410273980 -71639728 1941400438</internalNodes>
          <leafValues>
            -3.7483173608779907e-01 2.0346719026565552e-01</leafValues></_>
        <_>
          <internalNodes>
            0 -1 124 851367851 -84384524 -805257560 -1392838480
            -284141188 2020920748 -85033394 1056940022</internalNodes>
          <leafValues>
            -3.0216869711875916e-01 2.4155484139919281e-01</leafValues></_>
        <_>
          <internalNodes>
            0 -1 108 2055060479 -1229398088 -216884809 -822575284
            -560440452 2142237624 -204940 -84487180</internalNodes>
          <leafValues>
            -4.1721817851066589e-01 1.9540794193744659e-01</leafValues></_>
        <_>
          <internalNodes>
            0 -1 24 1850371967 -1143177474 -17268752 -134221954
            1299996536 -539721858 2146721006 1307565434</internalNodes>
          <leafValues>
            -2.5818875432014465e-01 2.9526740312576294e-01</leafValues></_>
        <_>
          <internalNodes>
            0 -1 116 1046348464 1303816428 -799741060 -1078199684
            2027740932 999214008 1286885130 934771454</internalNodes>
          <leafValues>
            -4.4166263937950134e-01 1.6923896968364716e-01</leafValues></_>
        <_>
          <internalNodes>
            0 -1 60 446413451 1975839486 -105074788 531488320 2086337324
            2142757178 -1130475654 901734386</internalNodes>
          <leafValues>
            -2.8950917720794678e-01 2.5965106487274170e-01</leafValues></_>
        <_>
          <internalNodes>
            0 -1 23 -285217043 -25231378 -84607366 -69704 2105519503
            1828519806 2130129754 -151257224</internalNodes>
          <leafValues>
            -2.3635239899158478e-01 3.1304454803466797e-01</leafValues></_>
        <_>
          <internalNodes>
            0 -1 183 -547103477 2138307450 2001361007 2127656883
            -187850240 -539278959 -158993432 -630132162</internalNodes>
          <leafValues>
            -3.0462211370468140e-01 2.4482727050781250e-01</leafValues></_></weakClassifiers></_>
    <!-- stage 10 -->
    <_>
      <maxWeakCount>22</maxWeakCount>
      <stageThreshold>-2.3469491004943848e+00</stageThreshold>
      <weakClassifiers>
        <_>
          <internalNodes>
            0 -1 132 -4230891 -33557605 -33587233 -39854153 -1145350402
            -280325 -54936581 -4457473</internalNodes>
          <leafValues>
            -8.5902303457260132e-01 -4.6563622355461121e-01</leafValues></_>
        <_>
          <internalNodes>
            0 -1 165 -134227459 -83927555 -1080699431 -1912743940 -5635
            -1996557071 -54545921 -1929380673</internalNodes>
          <leafValues>
            -4.5944967865943909e-01 2.3142434656620026e-01</leafValues></_>
        <_>
          <internalNodes>
            0 -1 185 -10488872 -132146 -79369860 -1636 -113968200
            -73798924 -1154416898 2004090815</internalNodes>
          <leafValues>
            -3.0975848436355591e-01 3.1645953655242920e-01</leafValues></_>
        <_>
          <internalNodes>
            0 -1 57 1359125152 2139090676 354426333 2012180196
            -537141330 -1057069 918257579 2013102078</internalNodes>
          <leafValues>
            -3.9403310418128967e-01 2.1628773212432861e-01</leafValues></_>
        <_>
          <internalNodes>
            0 -1 155 -4211703 995491832 -1078001672 -71697232 -195176484
            2139095036 -1690603650 1061158742</internalNodes>
          <leafValues>
            -2.5856795907020569e-01 3.1498903036117554e-01</leafValues></_>
        <_>
          <internalNodes>
            0 -1 69 -547380485 263319989 -25364228 -1141965100
            2121812156 2138359804 -4533684 1929379710</internalNodes>
          <leafValues>
            -3.3985397219657898e-01 2.1589085459709167e-01</leafValues></_>
        <_>
          <internalNodes>
            0 -1 174 -537003503 2138554353 795782829 939505657 -9377084
            -16908323 -252381506 -229640194</internalNodes>
          <leafValues>
            -2.1180894970893860e-01 3.4557980298995972e-01</leafValues></_>
        <_>
          <internalNodes>
            0 -1 145 1072037753 -1729834500 1541143039 -1598096388
            -236063755 -1149433367 -2001016068 -1157727492</internalNodes>
          <leafValues>
            -3.3910208940505981e-01 2.1908882260322571e-01</leafValues></_>
        <_>
          <internalNodes>
            0 -1 85 418846699 1585246964 -1437193584 -1079258124
            2025511390 2069676916 -4269078 936730451</internalNodes>
          <leafValues>
            -2.8068095445632935e-01 2.6813587546348572e-01</leafValues></_>
        <_>
          <internalNodes>
            0 -1 101 2108586163 -1670848836 595413496 -1078147084
            -204416020 2098248440 -335651842 1066884030</internalNodes>
          <leafValues>
            -3.0417832732200623e-01 2.4770979583263397e-01</leafValues></_>
        <_>
          <internalNodes>
            0 -1 81 478064367 -1100162098 -390277924 -33784844
            1536448660 1069451439 -8627524 -1090725932</internalNodes>
          <leafValues>
            -3.8903734087944031e-01 1.9939181208610535e-01</leafValues></_>
        <_>
          <internalNodes>
            0 -1 90 -8409121 -51249231 -16978252 1072623580 1576853428
            1056234996 -1074897030 1290764123</internalNodes>
          <leafValues>
            -2.6120153069496155e-01 3.0419328808784485e-01</leafValues></_>
        <_>
          <internalNodes>
            0 -1 62 176958648 1020847100 -1467183588 -1916942128
            -646146212 1553510074 -68202636 905928414</internalNodes>
          <leafValues>
            -4.4268372654914856e-01 1.8415786325931549e-01</leafValues></_>
        <_>
          <internalNodes>
            0 -1 53 1597747199 -1934296073 -758506757 2138632702
            1793872112 1230250864 -1095336636 -9259152</internalNodes>
          <leafValues>
            -3.8748398423194885e-01 1.8339341878890991e-01</leafValues></_>
        <_>
          <internalNodes>
            0 -1 50 535768767 -1174077441 -4689936 -32776 -34701314
            1608318846 -419528866 1325399807</internalNodes>
          <leafValues>
            -2.1944375336170197e-01 3.3444041013717651e-01</leafValues></_>
        <_>
          <internalNodes>
            0 -1 74 -1073783073 -1629686307 1541053692 933771732
            -80972972 1966099884 -15008432 1609792370</internalNodes>
          <leafValues>
            -3.5969382524490356e-01 2.0854003727436066e-01</leafValues></_>
        <_>
          <internalNodes>
            0 -1 6 1223159479 -823203384 -581686047 1875362482
            -168068625 -153183877 170381053 -422150215</internalNodes>
          <leafValues>
            -3.5523763298988342e-01 2.0803877711296082e-01</leafValues></_>
        <_>
          <internalNodes>
            0 -1 21 245951199 -6357264 -133143846 -75697160 2027461620
            -617834241 -606710792 2085909972</internalNodes>
          <leafValues>
            -4.8006156086921692e-01 1.4294578135013580e-01</leafValues></_>
        <_>
          <internalNodes>
            0 -1 167 2147312961 931328504 -1357907034 -1399065604
            -89360140 -1294284197 -226698376 -1401096332</internalNodes>
          <leafValues>
            -4.2578014731407166e-01 1.6020141541957855e-01</leafValues></_>
        <_>
          <internalNodes>
            0 -1 42 -894637142 -131798872 1331318031 -705891376
            243318527 -269957209 1408810870 -35851568</internalNodes>
          <leafValues>
            -2.5814548134803772e-01 2.5089991092681885e-01</leafValues></_>
        <_>
          <internalNodes>
            0 -1 76 -1302151425 341582280 -52364404 -169052182 960319404
            1002047743 -113365154 1691615095</internalNodes>
          <leafValues>
            -2.6147994399070740e-01 2.4383056163787842e-01</leafValues></_>
        <_>
          <internalNodes>
            0 -1 134 -7010880 1041089476 -1445069808 -40764826
            1031161876 2064952244 521520650 1698529135</internalNodes>
          <leafValues>
            -4.2838755249977112e-01 1.5457580983638763e-01</leafValues></_></weakClassifiers></_>
    <!-- stage 11 -->
    <_>
      <maxWeakCount>26</maxWeakCount>
      <stageThreshold>-2.4539484977722168e+00</stageThreshold>
      <weakClassifiers>
        <_>
          <internalNodes>
            0 -1 15 -67174657 -540344580 -734214402 1576916716
            -543228929 -536961029 -5633 1342169055</internalNodes>
          <leafValues>
            -8.4626775979995728e-01 -4.7251462936401367e-01</leafValues></_>
        <_>
          <internalNodes>
            0 -1 132 -167675 -33557997 973078493 -35668545 -1146284804
            -292097 -1124337157 -68436549</internalNodes>
          <leafValues>
            -5.3468722105026245e-01 8.9531838893890381e-02</leafValues></_>
        <_>
          <internalNodes>
            0 -1 30 -38308291 -538346627 -476057089 -294913 427784809
            469585780 -1217364112 -13142447</internalNodes>
          <leafValues>
            -3.6657354235649109e-01 2.4011094868183136e-01</leafValues></_>
        <_>
          <internalNodes>
            0 -1 20 -891359489 -52513974 -589903186 -16860190 1140509115
            2041768289 -616676610 -201359401</internalNodes>
          <leafValues>
            -2.8895255923271179e-01 2.8229913115501404e-01</leafValues></_>
        <_>
          <internalNodes>
            0 -1 49 258395903 -1650130963 -1073938434 -541393028
            1609854456 1567915484 -281142052 2063564254</internalNodes>
          <leafValues>
            -2.3847930133342743e-01 3.1336003541946411e-01</leafValues></_>
        <_>
          <internalNodes>
            0 -1 126 -2021695819 774952336 -565118596 -342951536
            2043182461 1568455164 -24222916 620690420</internalNodes>
          <leafValues>
            -4.9332904815673828e-01 1.5294021368026733e-01</leafValues></_>
        <_>
          <internalNodes>
            0 -1 191 -607916176 956363192 -350749072 -976460040
            1930816320 1501150377 -92276228 -1060112386</internalNodes>
          <leafValues>
            -2.8027650713920593e-01 2.3957821726799011e-01</leafValues></_>
        <_>
          <internalNodes>
            0 -1 105 -584646917 -1086537292 -315175108 -538119692
            2059226044 2071750840 -356713620 1895300086</internalNodes>
          <leafValues>
            -3.3134460449218750e-01 1.9848749041557312e-01</leafValues></_>
        <_>
          <internalNodes>
            0 -1 129 -655881 -1121912428 -25901964 -5573380 -548390028
            494189300 -65733716 905952446</internalNodes>
          <leafValues>
            -2.9544758796691895e-01 2.2617125511169434e-01</leafValues></_>
        <_>
          <internalNodes>
            0 -1 88 2105535711 783843236 -268538140 -1077952772
            2130472680 508882932 -339974 2013265919</internalNodes>
          <leafValues>
            -2.0454481244087219e-01 3.3616966009140015e-01</leafValues></_>
        <_>
          <internalNodes>
            0 -1 84 408448767 -1160207620 -1094812353 -1304324
            1318063352 -3292101 -4686852 -16843920</internalNodes>
          <leafValues>
            -3.3892598748207092e-01 1.9941063225269318e-01</leafValues></_>
        <_>
          <internalNodes>
            0 -1 61 1053754091 2130490334 -1257966948 -141168914
            2031201213 -32185672 -1343979642 1976409083</internalNodes>
          <leafValues>
            -2.6069769263267517e-01 2.5082942843437195e-01</leafValues></_>
        <_>
          <internalNodes>
            0 -1 179 -536916491 1050171920 -1684826667 -1108724756
            -713773583 951097649 1610480636 -923075332</internalNodes>
          <leafValues>
            -3.2644394040107727e-01 2.1200515329837799e-01</leafValues></_>
        <_>
          <internalNodes>
            0 -1 1 -355552841 -555177822 -12126223 -772321538
            -1616184325 -1359220737 535246335 -823911236</internalNodes>
          <leafValues>
            -2.2828735411167145e-01 2.9822990298271179e-01</leafValues></_>
        <_>
          <internalNodes>
            0 -1 162 2138828287 2069749485 -1224796 268406768
            -1082306604 1014361469 -268644514 1744166902</internalNodes>
          <leafValues>
            -2.4913631379604340e-01 2.6373305916786194e-01</leafValues></_>
        <_>
          <internalNodes>
            0 -1 118 2071969777 1035927521 -16843016 -1342177815
            -1612767556 2096070655 -58949910 922746870</internalNodes>
          <leafValues>
            -2.3524424433708191e-01 2.7637061476707458e-01</leafValues></_>
        <_>
          <internalNodes>
            0 -1 79 1867786429 1055048118 1020009736 2078825972
            2135903204 2099147505 -1115947156 1693834996</internalNodes>
          <leafValues>
            -3.5343369841575623e-01 1.8321606516838074e-01</leafValues></_>
        <_>
          <internalNodes>
            0 -1 128 1020297183 247001820 -753674753 788308972
            1539070324 -1108319303 1055947604 913210964</internalNodes>
          <leafValues>
            -5.6612718105316162e-01 1.1461313813924789e-01</leafValues></_>
        <_>
          <internalNodes>
            0 -1 138 1584386001 -12648467 -131073 1073151994 -545366604
            -33554433 -306253956 -1073774593</internalNodes>
          <leafValues>
            -2.1052764356136322e-01 3.1920799612998962e-01</leafValues></_>
        <_>
          <internalNodes>
            0 -1 35 986319872 785316842 525078348 -815809824 -88246526
            -1140972112 2136210206 -279254659</internalNodes>
          <leafValues>
            -6.1784046888351440e-01 1.0451033711433411e-01</leafValues></_>
        <_>
          <internalNodes>
            0 -1 14 -324284713 -993876318 1092557622 -747702688
            1374673020 -1366417950 -486906611 1727657712</internalNodes>
          <leafValues>
            -3.5254561901092529e-01 1.7142252624034882e-01</leafValues></_>
        <_>
          <internalNodes>
            0 -1 52 1541439387 -1361773316 -1017865962 -4227156
            -631747076 -26945248 -1886619328 1324482422</internalNodes>
          <leafValues>
            -3.1201454997062683e-01 1.9342088699340820e-01</leafValues></_>
        <_>
          <internalNodes>
            0 -1 96 -366823407 -84107596 -49459 1568428960 -1082327313
            -1342341377 -18903105 -1407375808</internalNodes>
          <leafValues>
            -2.2033186256885529e-01 2.7830395102500916e-01</leafValues></_>
        <_>
          <internalNodes>
            0 -1 177 1845131389 906549632 -611421244 -1343294736
            -109188380 1945614760 -220861724 -1529941260</internalNodes>
          <leafValues>
            -3.8323968648910522e-01 1.5822121500968933e-01</leafValues></_>
        <_>
          <internalNodes>
            0 -1 188 -1076363469 2133981304 1192995488 1063252413
            -609920100 -606879559 -26334216 -185942049</internalNodes>
          <leafValues>
            -2.2474543750286102e-01 2.7163729071617126e-01</leafValues></_>
        <_>
          <internalNodes>
            0 -1 178 1870114813 222232424 -25169952 -1065036 1576296309
            -1266843779 -533260 -1073745922</internalNodes>
          <leafValues>
            -2.1694983541965485e-01 2.8471857309341431e-01</leafValues></_></weakClassifiers></_>
    <!-- stage 12 -->
    <_>
      <maxWeakCount>27</maxWeakCount>
      <stageThreshold>-2.4167976379394531e+00</stageThreshold>
      <weakClassifiers>
        <_>
          <internalNodes>
            0 -1 193 -33554433 -17131013 -603987973 -1929449219
            -1083444225 -1459832353 -67372289 -1929379841</internalNodes>
          <leafValues>
            -8.3720791339874268e-01 -4.6556910872459412e-01</leafValues></_>
        <_>
          <internalNodes>
            0 -1 18 -536937729 -6368002 -16856322 -536883252 -610468866
            -554011906 -4534785 1342136315</internalNodes>
          <leafValues>
            -4.8670262098312378e-01 1.3725283741950989e-01</leafValues></_>
        <_>
          <internalNodes>
            0 -1 56 821535402 -1615112209 50225053 -135299193 2004442279
            -282369 -151015457 -1348531210</internalNodes>
          <leafValues>
            -4.0821230411529541e-01 2.0966252684593201e-01</leafValues></_>
        <_>
          <internalNodes>
            0 -1 175 -8389751 925892605 -1372607580 -1484783773 -65912
            -1107460100 -218824708 -218103809</internalNodes>
          <leafValues>
            -2.0160116255283356e-01 3.8152483105659485e-01</leafValues></_>
        <_>
          <internalNodes>
            0 -1 68 -16786449 -1616838668 2147372784 -1073741884
            1560071628 1599406012 1073667198 1609564158</internalNodes>
          <leafValues>
            -2.4691587686538696e-01 2.9854714870452881e-01</leafValues></_>
        <_>
          <internalNodes>
            0 -1 111 1005582007 -569052760 -801717392 -1158743844
            2052068088 1867555832 -111247874 855571454</internalNodes>
          <leafValues>
            -3.1741476058959961e-01 2.5695380568504333e-01</leafValues></_>
        <_>
          <internalNodes>
            0 -1 119 -27683085 1528627196 -270262368 -1077936195
            -19079236 2136866812 -16978965 1073740671</internalNodes>
          <leafValues>
            -2.0052996277809143e-01 3.4397616982460022e-01</leafValues></_>
        <_>
          <internalNodes>
            0 -1 125 -1688768835 1068563452 -144993921 -1342648068
            2044221757 2079578527 -68400812 754220260</internalNodes>
          <leafValues>
            -6.0632300376892090e-01 1.1453905701637268e-01</leafValues></_>
        <_>
          <internalNodes>
            0 -1 64 730272419 1015583212 -767379084 -6652 1516551732
            1436214066 -126997766 1988054994</internalNodes>
          <leafValues>
            -3.2408073544502258e-01 2.0415487885475159e-01</leafValues></_>
        <_>
          <internalNodes>
            0 -1 95 -18964483 2122076637 -73536553 -161997829 -250604064
            2138460175 -1088783374 -361166</internalNodes>
          <leafValues>
            -2.9340386390686035e-01 2.2673366963863373e-01</leafValues></_>
        <_>
          <internalNodes>
            0 -1 29 -314610689 -30441001 1415246510 -100354 -356694812
            -245073551 -1159454620 -25854092</internalNodes>
          <leafValues>
            -3.2364988327026367e-01 1.9730739295482635e-01</leafValues></_>
        <_>
          <internalNodes>
            0 -1 127 -174114073 1028935900 2069092060 650378340
            -67365596 -1135558171 -18157732 1199406711</internalNodes>
          <leafValues>
            -2.5888040661811829e-01 2.3041327297687531e-01</leafValues></_>
        <_>
          <internalNodes>
            0 -1 168 2128568177 1069472508 -217583691 -839076868
            -23299212 -1203904356 -118161796 -285278988</internalNodes>
          <leafValues>
            -3.6162981390953064e-01 1.8450140953063965e-01</leafValues></_>
        <_>
          <internalNodes>
            0 -1 151 -10511183 -1148403780 -886751504 -1377517700
            -5374244 -32777 -1369645090 -1359583386</internalNodes>
          <leafValues>
            -2.1313136816024780e-01 2.9524314403533936e-01</leafValues></_>
        <_>
          <internalNodes>
            0 -1 143 983496125 -1087388720 -788013312 -1515563816
            2125888060 2104599220 2113043288 670525428</internalNodes>
          <leafValues>
            -3.8994470238685608e-01 1.5709336102008820e-01</leafValues></_>
        <_>
          <internalNodes>
            0 -1 7 640461336 -1909792022 -67477604 100642376 -885293308
            1026881555 980167279 2133454819</internalNodes>
          <leafValues>
            -4.8844057321548462e-01 1.1443981528282166e-01</leafValues></_>
        <_>
          <internalNodes>
            0 -1 99 1356713899 -1689210884 2142539278 -700546 1549590422
            2147352062 754212762 1037008746</internalNodes>
          <leafValues>
            -2.2223426401615143e-01 2.6759463548660278e-01</leafValues></_>
        <_>
          <internalNodes>
            0 -1 180 1057627417 680409593 -1861098083 266131700
            -1986323555 -2001181511 -1917092568 -1934862148</internalNodes>
          <leafValues>
            -4.5807719230651855e-01 1.2829002737998962e-01</leafValues></_>
        <_>
          <internalNodes>
            0 -1 146 -134269199 -1375797319 -1392575004 -839123464
            -671318068 -322128391 -553724676 -1342231297</internalNodes>
          <leafValues>
            -2.0548248291015625e-01 3.1216177344322205e-01</leafValues></_>
        <_>
          <internalNodes>
            0 -1 173 -80569327 -9328841 980926457 2147247991 -22285656
            -1107329025 -525142338 974844794</internalNodes>
          <leafValues>
            -2.2226130962371826e-01 2.6799938082695007e-01</leafValues></_>
        <_>
          <internalNodes>
            0 -1 89 1593290495 787511965 -200101633 652661476 -111650732
            -545617621 -223544228 956235604</internalNodes>
          <leafValues>
            -4.7399860620498657e-01 1.2682692706584930e-01</leafValues></_>
        <_>
          <internalNodes>
            0 -1 24 1850241023 -1144226066 -17006850 -4194450 1333551100
            -553713666 -17510802 1609555194</internalNodes>
          <leafValues>
            -2.1348877251148224e-01 2.8208211064338684e-01</leafValues></_>
        <_>
          <internalNodes>
            0 -1 135 2125924209 -1078145579 -277479621 -286982436
            -812359884 -1125209605 -91030924 -269680988</internalNodes>
          <leafValues>
            -3.3951157331466675e-01 1.7221190035343170e-01</leafValues></_>
        <_>
          <internalNodes>
            0 -1 37 -819065184 -1394488 -1665239049 -101526154
            -630902802 -559450625 690871734 -1871867148</internalNodes>
          <leafValues>
            -2.3397068679332733e-01 2.4404118955135345e-01</leafValues></_>
        <_>
          <internalNodes>
            0 -1 184 1561989120 -1075852304 -1288023619 -12913828
            -84630776 -723236775 665270970 1066794810</internalNodes>
          <leafValues>
            -3.3980470895767212e-01 1.6517108678817749e-01</leafValues></_>
        <_>
          <internalNodes>
            0 -1 130 1606168511 737213400 1367593983 779288060
            1905803124 -1150418120 -1146455180 -1094043888</internalNodes>
          <leafValues>
            -4.5962744951248169e-01 1.2131404876708984e-01</leafValues></_>
        <_>
          <internalNodes>
            0 -1 149 -21891693 -16809988 -1087181097 -73367748 517985694
            -2097154 1857961658 -67108977</internalNodes>
          <leafValues>
            -1.5288563072681427e-01 3.9932069182395935e-01</leafValues></_></weakClassifiers></_>
    <!-- stage 13 -->
    <_>
      <maxWeakCount>27</maxWeakCount>
      <stageThreshold>-2.3763415813446045e+00</stageThreshold>
      <weakClassifiers>
        <_>
          <internalNodes>
            0 -1 11 -1114369 -538186018 -545368327 1308574415 -807404545
            -4279301 -1025 -13313</internalNodes>
          <leafValues>
            -8.0995142459869385e-01 -3.6874517798423767e-01</leafValues></_>
        <_>
          <internalNodes>
            0 -1 31 -402720001 -1428230659 -250552579 -78467457
            -340331788 -1104123533 -1155170509 -9212041</internalNodes>
          <leafValues>
            -5.2289038896560669e-01 6.3864700496196747e-02</leafValues></_>
        <_>
          <internalNodes>
            0 -1 150 2068522650 -541351237 -3917900 -335696961
            1062583292 -1436696691 1869938652 -277496849</internalNodes>
          <leafValues>
            -3.8211613893508911e-01 2.0206582546234131e-01</leafValues></_>
        <_>
          <internalNodes>
            0 -1 121 -1179194181 -604175364 -1869367720 -272631084
            1582586836 1532615420 -1343325238 935295743</internalNodes>
          <leafValues>
            -2.7179035544395447e-01 2.7201360464096069e-01</leafValues></_>
        <_>
          <internalNodes>
            0 -1 75 -1476354767 -38000478 -689155 501615589 -1147758082
            -1147930915 -276451333 -544323917</internalNodes>
          <leafValues>
            -2.7459704875946045e-01 2.8208586573600769e-01</leafValues></_>
        <_>
          <internalNodes>
            0 -1 46 -165223173 -26547488 -63281508 -2688320 1857816796
            787980719 -33916100 1962927094</internalNodes>
          <leafValues>
            -2.8695210814476013e-01 2.4762411415576935e-01</leafValues></_>
        <_>
          <internalNodes>
            0 -1 83 1661307654 1192162031 1196475856 -1107854899
            -84014346 -1146198276 1718480807 475389690</internalNodes>
          <leafValues>
            -2.9288506507873535e-01 2.2988221049308777e-01</leafValues></_>
        <_>
          <internalNodes>
            0 -1 70 1604150527 536149999 -16851206 -5055562 -9155368
            -25755659 -1090848802 -71663810</internalNodes>
          <leafValues>
            -2.2856852412223816e-01 2.6766276359558105e-01</leafValues></_>
        <_>
          <internalNodes>
            0 -1 25 -56715042 -863710522 2027080338 -2583822 -724221746
            509083844 -1578241144 -204997724</internalNodes>
          <leafValues>
            -2.5182369351387024e-01 2.4971304833889008e-01</leafValues></_>
        <_>
          <internalNodes>
            0 -1 100 1492962559 -1365479938 513596668 1340663968
            -99853412 -72162603 -672366600 754383636</internalNodes>
          <leafValues>
            -3.3866468071937561e-01 1.8312563002109528e-01</leafValues></_>
        <_>
          <internalNodes>
            0 -1 142 2146299667 -524551 -150995760 249691892 -537110699
            1818099708 -33755146 1601697655</internalNodes>
          <leafValues>
            -2.2055009007453918e-01 2.9254359006881714e-01</leafValues></_>
        <_>
          <internalNodes>
            0 -1 192 1065343857 -1434912382 1453005792 149979776
            -227672299 683459472 -109199876 -1998272276</internalNodes>
          <leafValues>
            -4.5686221122741699e-01 1.4102499186992645e-01</leafValues></_>
        <_>
          <internalNodes>
            0 -1 152 2143254033 -19005530 -1363235184 1052114930
            -271057446 2113863676 1060577035 2140143490</internalNodes>
          <leafValues>
            -2.3757161200046539e-01 2.5637486577033997e-01</leafValues></_>
        <_>
          <internalNodes>
            0 -1 26 1515126716 -1677954343 286702476 -1356726468
            1935568812 -308004545 -29860806 2088729468</internalNodes>
          <leafValues>
            -2.5953918695449829e-01 2.3807226121425629e-01</leafValues></_>
        <_>
          <internalNodes>
            0 -1 137 1551859699 -1225469703 -329254708 -302188580
            416045565 -79093609 -21464204 -17270796</internalNodes>
          <leafValues>
            -3.5071596503257751e-01 1.7154139280319214e-01</leafValues></_>
        <_>
          <internalNodes>
            0 -1 80 1019628197 -819398164 337956892 1606276980 526154116
            1601538236 -83993665 671054719</internalNodes>
          <leafValues>
            -2.6667168736457825e-01 2.2601635754108429e-01</leafValues></_>
        <_>
          <internalNodes>
            0 -1 160 1904031735 -1732713988 -41691693 -1343822856
            2079357232 -618948119 -235390096 -1493274124</internalNodes>
          <leafValues>
            -4.3429109454154968e-01 1.2875780463218689e-01</leafValues></_>
        <_>
          <internalNodes>
            0 -1 43 1989082873 992259822 -1360646609 2110241584
            -822198308 -1082146817 1056857311 904380399</internalNodes>
          <leafValues>
            -2.0135520398616791e-01 2.9952707886695862e-01</leafValues></_>
        <_>
          <internalNodes>
            0 -1 28 -494174542 -1879141892 1222307556 -306220850
            1320906608 1308898224 -86541364 1426058963</internalNodes>
          <leafValues>
            -3.0580475926399231e-01 1.9082710146903992e-01</leafValues></_>
        <_>
          <internalNodes>
            0 -1 166 -1904212908 -60691 933407147 1576990004 -1170564392
            -212187124 -1841071717 -172454086</internalNodes>
          <leafValues>
            -3.0492427945137024e-01 1.8605221807956696e-01</leafValues></_>
        <_>
          <internalNodes>
            0 -1 107 1055544251 -1321445964 -1870248948 -1346372444
            -1172305668 962120004 -33935376 1690271678</internalNodes>
          <leafValues>
            -2.9290738701820374e-01 1.8527741730213165e-01</leafValues></_>
        <_>
          <internalNodes>
            0 -1 170 968195325 -1961848360 -778972699 787403224 22617052
            145866941 1481427028 787406060</internalNodes>
          <leafValues>
            -4.4458097219467163e-01 1.2750270962715149e-01</leafValues></_>
        <_>
          <internalNodes>
            0 -1 122 1709700341 -1078668417 -2103257283 -1080117335
            -371695759 736032814 -43754884 -50397196</internalNodes>
          <leafValues>
            -3.2518455386161804e-01 1.6675929725170135e-01</leafValues></_>
        <_>
          <internalNodes>
            0 -1 48 -2015448129 -1109593100 -788250484 -545346760
            2031901435 -617667397 -1144235694 2051014334</internalNodes>
          <leafValues>
            -2.2899857163429260e-01 2.4058495461940765e-01</leafValues></_>
        <_>
          <internalNodes>
            0 -1 23 -296876436 -294194330 -1060051930 -218479688
            1232281626 -123428122 -91782384 1347746160</internalNodes>
          <leafValues>
            -5.4004061222076416e-01 1.0256473720073700e-01</leafValues></_>
        <_>
          <internalNodes>
            0 -1 115 1959813681 1068266409 853292905 -288064600
            -1624745224 1807479547 2056551284 -1394314652</internalNodes>
          <leafValues>
            -3.5730290412902832e-01 1.5005350112915039e-01</leafValues></_>
        <_>
          <internalNodes>
            0 -1 59 302648964 -297524484 71310490 892938784 -1315262204
            -619130371 1441091242 1994087095</internalNodes>
          <leafValues>
            -5.0454294681549072e-01 1.0240964591503143e-01</leafValues></_></weakClassifiers></_></stages>
  <features>
    <_>
      <rect>
        0 0 1 3</rect></_>
    <_>
      <rect>
        0 0 2 1</rect></_>
    <_>
      <rect>
        0 0 2 2</rect></_>
    <_>
      <rect>
        0 0 3 1</rect></_>
    <_>
      <rect>
        0 0 4 1</rect></_>
    <_>
      <rect>
        0 0 4 2</rect></_>
    <_>
      <rect>
        0 1 2 1</rect></_>
    <_>
      <rect>
        0 1 3 2</rect></_>
    <_>
      <rect>
        0 1 3 4</rect></_>
    <_>
      <rect>
        0 2 1 1</rect></_>
    <_>
      <rect>
        0 2 2 1</rect></_>
    <_>
      <rect>
        0 2 2 2</rect></_>
    <_>
      <rect>
        0 2 2 3</rect></_>
    <_>
      <rect>
        0 2 3 2</rect></_>
    <_>
      <rect>
        0 3 1 1</rect></_>
    <_>
      <rect>
        0 3 2 2</rect></_>
    <_>
      <rect>
        0 4 1 1</rect></_>
    <_>
      <rect>
        0 4 1 3</rect></_>
    <_>
      <rect>
        0 4 2 2</rect></_>
    <_>
      <rect>
        0 4 3 2</rect></_>
    <_>
      <rect>
        0 5 1 1</rect></_>
    <_>
      <rect>
        0 5 1 2</rect></_>
    <_>
      <rect>
        0 5 2 2</rect></_>
    <_>
      <rect>
        0 6 1 1</rect></_>
    <_>
      <rect>
        0 6 2 2</rect></_>
    <_>
      <rect>
        0 7 1 1</rect></_>
    <_>
      <rect>
        0 7 2 2</rect></_>
    <_>
      <rect>
        0 8 2 1</rect></_>
    <_>
      <rect>
        0 8 3 1</rect></_>
    <_>
      <rect>
        0 9 1 1</rect></_>
    <_>
      <rect>
        0 10 1 1</rect></_>
    <_>
      <rect>
        0 10 2 1</rect></_>
    <_>
      <rect>
        1 0 2 1</rect></_>
    <_>
      <rect>
        1 0 2 2</rect></_>
    <_>
      <rect>
        1 0 4 2</rect></_>
    <_>
      <rect>
        1 0 4 3</rect></_>
    <_>
      <rect>
        1 0 4 4</rect></_>
    <_>
      <rect>
        1 1 1 1</rect></_>
    <_>
      <rect>
        1 1 2 2</rect></_>
    <_>
      <rect>
        1 1 3 4</rect></_>
    <_>
      <rect>
        1 1 4 2</rect></_>
    <_>
      <rect>
        1 1 4 3</rect></_>
    <_>
      <rect>
        1 2 1 1</rect></_>
    <_>
      <rect>
        1 2 2 1</rect></_>
    <_>
      <rect>
        1 2 2 2</rect></_>
    <_>
      <rect>
        1 3 2 2</rect></_>
    <_>
      <rect>
        1 4 1 1</rect></_>
    <_>
      <rect>
        1 4 2 2</rect></_>
    <_>
      <rect>
        1 5 1 2</rect></_>
    <_>
      <rect>
        1 6 1 2</rect></_>
    <_>
      <rect>
        1 6 2 2</rect></_>
    <_>
      <rect>
        1 7 2 1</rect></_>
    <_>
      <rect>
        1 7 2 2</rect></_>
    <_>
      <rect>
        1 9 1 1</rect></_>
    <_>
      <rect>
        1 10 1 1</rect></_>
    <_>
      <rect>
        2 0 1 1</rect></_>
    <_>
      <rect>
        2 0 3 1</rect></_>
    <_>
      <rect>
        2 0 3 2</rect></_>
    <_>
      <rect>
        2 1 1 1</rect></_>
    <_>
      <rect>
        2 1 3 2</rect></_>
    <_>
      <rect>
        2 2 2 2</rect></_>
    <_>
      <rect>
        2 2 2 3</rect></_>
    <_>
      <rect>
        2 3 2 2</rect></_>
    <_>
      <rect>
        2 3 3 3</rect></_>
    <_>
      <rect>
        2 4 2 2</rect></_>
    <_>
      <rect>
        2 5 1 1</rect></_>
    <_>
      <rect>
        2 5 2 2</rect></_>
    <_>
      <rect>
        2 6 1 1</rect></_>
    <_>
      <rect>
        2 6 2 2</rect></_>
    <_>
      <rect>
        2 7 2 1</rect></_>
    <_>
      <rect>
        2 8 1 1</rect></_>
    <_>
      <rect>
        2 9 1 1</rect></_>
    <_>
      <rect>
        2 9 2 1</rect></_>
    <_>
      <rect>
        2 10 1 1</rect></_>
    <_>
      <rect>
        2 10 2 1</rect></_>
    <_>
      <rect>
        3 0 1 1</rect></_>
    <_>
      <rect>
        3 2 2 1</rect></_>
    <_>
      <rect>
        3 2 2 2</rect></_>
    <_>
      <rect>
        3 2 3 3</rect></_>
    <_>
      <rect>
        3 3 2 1</rect></_>
    <_>
      <rect>
        3 3 2 2</rect></_>
    <_>
      <rect>
        3 4 1 1</rect></_>
    <_>
      <rect>
        3 4 2 2</rect></_>
    <_>
      <rect>
        3 4 3 3</rect></_>
    <_>
      <rect>
        3 5 1 1</rect></_>
    <_>
      <rect>
        3 5 2 2</rect></_>
    <_>
      <rect>
        3 6 1 1</rect></_>
    <_>
      <rect>
        3 6 2 1</rect></_>
    <_>
      <rect>
        3 6 2 2</rect></_>
    <_>
      <rect>
        3 7 1 1</rect></_>
    <_>
      <rect>
        3 7 2 2</rect></_>
    <_>
      <rect>
        3 8 2 1</rect></_>
    <_>
      <rect>
        3 9 1 1</rect></_>
    <_>
      <rect>
        3 9 2 1</rect></_>
    <_>
      <rect>
        3 9 3 1</rect></_>
    <_>
      <rect>
        3 10 1 1</rect></_>
    <_>
      <rect>
        4 0 1 1</rect></_>
    <_>
      <rect>
        4 0 3 1</rect></_>
    <_>
      <rect>
        4 0 3 3</rect></_>
    <_>
      <rect>
        4 2 2 2</rect></_>
    <_>
      <rect>
        4 3 1 1</rect></_>
    <_>
      <rect>
        4 3 2 2</rect></_>
    <_>
      <rect>
        4 4 1 1</rect></_>
    <_>
      <rect>
        4 4 2 2</rect></_>
    <_>
      <rect>
        4 5 1 1</rect></_>
    <_>
      <rect>
        4 5 2 1</rect></_>
    <_>
      <rect>
        4 5 2 2</rect></_>
    <_>
      <rect>
        4 6 2 2</rect></_>
    <_>
      <rect>
        4 7 1 1</rect></_>
    <_>
      <rect>
        4 7 2 1</rect></_>
    <_>
      <rect>
        4 7 2 2</rect></_>
    <_>
      <rect>
        4 8 2 1</rect></_>
    <_>
      <rect>
        4 8 3 1</rect></_>
    <_>
      <rect>
        5 0 1 1</rect></_>
    <_>
      <rect>
        5 0 2 2</rect></_>
    <_>
      <rect>
        5 2 1 1</rect></_>
    <_>
      <rect>
        5 2 2 2</rect></_>
    <_>
      <rect>
        5 3 1 1</rect></_>
    <_>
      <rect>
        5 3 2 1</rect></_>
    <_>
      <rect>
        5 3 2 2</rect></_>
    <_>
      <rect>
        5 4 1 1</rect></_>
    <_>
      <rect>
        5 4 2 2</rect></_>
    <_>
      <rect>
        5 5 1 1</rect></_>
    <_>
      <rect>
        5 5 2 2</rect></_>
    <_>
      <rect>
        5 6 2 2</rect></_>
    <_>
      <rect>
        5 7 1 1</rect></_>
    <_>
      <rect>
        5 7 2 1</rect></_>
    <_>
      <rect>
        5 7 2 2</rect></_>
    <_>
      <rect>
        5 9 1 1</rect></_>
    <_>
      <rect>
        5 9 2 1</rect></_>
    <_>
      <rect>
        5 10 1 1</rect></_>
    <_>
      <rect>
        5 10 2 1</rect></_>
    <_>
      <rect>
        6 0 2 1</rect></_>
    <_>
      <rect>
        6 0 2 2</rect></_>
    <_>
      <rect>
        6 2 2 2</rect></_>
    <_>
      <rect>
        6 3 1 1</rect></_>
    <_>
      <rect>
        6 3 2 2</rect></_>
    <_>
      <rect>
        6 4 1 1</rect></_>
    <_>
      <rect>
        6 4 1 2</rect></_>
    <_>
      <rect>
        6 4 2 2</rect></_>
    <_>
      <rect>
        6 5 2 2</rect></_>
    <_>
      <rect>
        6 6 1 1</rect></_>
    <_>
      <rect>
        6 6 2 2</rect></_>
    <_>
      <rect>
        6 7 2 1</rect></_>
    <_>
      <rect>
        6 9 1 1</rect></_>
    <_>
      <rect>
        6 10 1 1</rect></_>
    <_>
      <rect>
        6 10 2 1</rect></_>
    <_>
      <rect>
        7 0 1 1</rect></_>
    <_>
      <rect>
        7 0 2 1</rect></_>
    <_>
      <rect>
        7 1 2 2</rect></_>
    <_>
      <rect>
        7 1 2 4</rect></_>
    <_>
      <rect>
        7 2 1 1</rect></_>
    <_>
      <rect>
        7 2 2 2</rect></_>
    <_>
      <rect>
        7 3 2 2</rect></_>
    <_>
      <rect>
        7 4 1 1</rect></_>
    <_>
      <rect>
        7 4 2 2</rect></_>
    <_>
      <rect>
        7 5 1 1</rect></_>
    <_>
      <rect>
        7 5 2 2</rect></_>
    <_>
      <rect>
        7 6 1 1</rect></_>
    <_>
      <rect>
        7 6 2 2</rect></_>
    <_>
      <rect>
        7 7 1 1</rect></_>
    <_>
      <rect>
        7 7 2 1</rect></_>
    <_>
      <rect>
        7 7 2 2</rect></_>
    <_>
      <rect>
        7 8 1 1</rect></_>
    <_>
      <rect>
        7 10 1 1</rect></_>
    <_>
      <rect>
        7 10 2 1</rect></_>
    <_>
      <rect>
        8 0 1 1</rect></_>
    <_>
      <rect>
        8 4 1 1</rect></_>
    <_>
      <rect>
        8 6 1 1</rect></_>
    <_>
      <rect>
        8 7 1 1</rect></_>
    <_>
      <rect>
        8 9 1 1</rect></_>
    <_>
      <rect>
        8 10 1 1</rect></_>
    <_>
      <rect>
        9 0 1 1</rect></_>
    <_>
      <rect>
        9 1 1 1</rect></_>
    <_>
      <rect>
        9 2 1 1</rect></_>
    <_>
      <rect>
        9 3 1 1</rect></_>
    <_>
      <rect>
        9 4 1 1</rect></_>
    <_>
      <rect>
        9 6 1 1</rect></_>
    <_>
      <rect>
        9 7 1 1</rect></_>
    <_>
      <rect>
        9 9 1 1</rect></_>
    <_>
      <rect>
        9 10 1 1</rect></_>
    <_>
      <rect>
        10 0 1 2</rect></_>
    <_>
      <rect>
        10 0 1 3</rect></_>
    <_>
      <rect>
        10 2 1 1</rect></_>
    <_>
      <rect>
        10 2 1 2</rect></_>
    <_>
      <rect>
        10 2 1 3</rect></_>
    <_>
      <rect>
        10 3 1 1</rect></_>
    <_>
      <rect>
        10 4 1 1</rect></_>
    <_>
      <rect>
        10 5 1 1</rect></_>
    <_>
      <rect>
        10 5 1 2</rect></_>
    <_>
      <rect>
        10 6 1 1</rect></_>
    <_>
      <rect>
        10 7 1 1</rect></_>
    <_>
      <rect>
        10 9 1 1</rect></_>
    <_>
      <rect>
        10 10 1 1</rect></_></features></cascade>
</opencv_storage>
